var svm_vars = {"N":4020,"D":200,"b":0.27480438385530703,"kernelType":"linear","w":[-0.781456224108205,0.08212958158555728,-0.09251477672497728,0.537973431152913,-0.2966127589737926,0.44350376435358374,0.4407853727285762,-0.9532099349882692,0.2004369259999976,-0.2664434926281648,-1.686086116911686,-0.9220639134843841,0.08084177717407615,0.7690690353341868,-1.3940650374293289,1.1508925378243375,0.2000890178894649,2.3599197116447077,-0.29605044588428614,0.5165369503418782,-0.3318837633452489,0.16620463358105209,-0.22700230478480998,-0.4865780057476157,0.12658184569977782,0.9254795428106161,1.039654560039488,0.7249440261375547,-0.33544635522751287,0.5365001052710833,2.7723013035137845,-0.3215628074804173,0.02309065293606155,-1.3139478034291185,-1.2581192579944669,-1.165670703530071,0.2429109371390127,-1.3832864605701531,0.4421673869508358,-0.3426784317115403,0.7253546370719415,0.20288202951354228,-1.2601851180175012,1.2098109798196433,0.7251956161446924,0.4278004498902378,0.5631272117427022,-1.1403344264900093,0.9627672709353712,1.9697459129681782,1.8603188539475441,0.8493381726910094,0.6520879917801023,-0.9553578729790675,-1.3390656768283575,-0.4085906641034386,0.6429302901304883,-0.3334413273170015,-0.21638842711396153,-0.5553024760531977,1.8277346948623254,1.9437627459675741,-0.5022652999806334,-0.7984969092117649,0.47475781195941263,0.7254299313595365,0.161396378222184,0.018448766305676045,0.5456318482185322,-1.2747710776990777,1.5957178045595295,-0.8684848150473271,0.7104093144920003,0.8366382026530179,0.20442856408187754,-0.6558558244257621,-1.44575168397175,0.6862433426325802,-1.978192861360343,0.5760684932030182,0.23558011712625018,0.02681821466412787,-2.2720877577455654,0.8790300858526691,0.3976726463884712,-0.5940108192343168,-0.8309930507355398,-0.287540598533111,-1.0669958735612561,0.9583983853280237,-0.2755602034311565,-0.5597016679433622,1.087906959040854,-0.0982494088225461,-1.4396506092368888,1.2393600544208918,-0.18123861667785046,-0.04419839580695926,1.559405090993016,0.5746253702853245,1.5093490690690534,0.5072854907883215,0.7252248195707856,-0.7012221997668091,-1.078457517441173,0.3167311722569827,-0.2178990114549172,0.5240233469513698,0.49031571371960636,-1.6808373584178562,-1.061674797904449,0.9819354954683712,-2.2623829986299677,0.28179711887446046,-2.5620664484075104,0.495054791625696,0.6707036753921138,1.0842630862967917,-0.7724392092206399,-2.242123741370542,-2.947713890585301,-0.7726511101464961,0.913048843149902,3.3001749877475945,-0.07756339850706051,0.20584331573310555,0.5253019975687734,-0.38449446449424585,-0.8506507978504921,1.0676037350009886,0.8231854238465472,-0.9371652436961418,2.384723857205617,-1.7524384110996127,-0.11742642485898921,-1.351494803951594,-0.6122115458253529,-0.16195976525829806,0.14865801013118385,0.00003506696666919236,-1.5300932332184427,0.00003506696666919236,-2.094100387562042,-2.4553932333587225,-1.300459510620296,2.8726153256226343,0.21361824277778702,-2.010304090794046,1.959253587403927,-1.4345320333556302,0.6927673711113745,0.40904655862061,1.2816737708023496,1.9481367396737272,0.2583032999541271,0.7349476093272587,-1.7576408690634555,0.32561400701018756,-0.4450090906605549,-1.2040387359422797,1.1718075067097655,0.785656395043219,3.404952406465778,-2.3894670082142864,-2.138097504604711,0.8209254376181075,-3.540571674356076,-0.6614183391567692,0.5464330809644632,-0.05482086531579217,0.18728871689899845,-0.5287273373707428,1.2789591919668668,0.3461721238118707,-0.6042632421627895,0.20590866778913716,0.6005394903654959,3.271434259198074,-0.38692925179489335,-0.030445884565925355,-1.761620432499244,-0.551586062238712,1.0722926705398406,2.6423549416104892,-0.8241927002012016,-1.8591373065685999,1.2307358744445032,-0.7415608426553895,2.0115993381167976,1.2708420493601698,-0.43671004339463937,-1.00682707943972,-2.735497806278468,1.970137125483423,-0.6806412909499049,1.2652725527892872,-0.6915056141863289,0.8261743057844687,0.3491290025929735,-0.14160425756547929]};